/*
--------------------------------------------------
    James William Fletcher (james@voxdsp.com)
--------------------------------------------------
    Autoshoot / trigger bot for CS:GO.
    https://github.com/tfcnn

        "PewPew Trigger Bot v1"
            June 2021

    Compile:
    clang csgo_pewpew_triggerbot.c -Ofast -lX11 -lm -o aim
*/

#include <stdio.h>
#include <string.h>
#include <unistd.h>
#include <stdlib.h>
#include <stdint.h>
#include <math.h>
#include <time.h>
#include <X11/Xlib.h>
#include <X11/Xutil.h>

// where the magic happens
const float aim_kernel[] = {0.17975837,-0.056029357,-0.14259692,0.21552481,0.15323153,-2.9027095e-05,0.019543024,-0.05979602,-0.22078271,0.12081229,0.07651675,0.042711265,0.011145142,-0.10138765,-0.07445616,0.21372235,0.0979125,0.08224742,0.010172792,-0.18418355,-0.25616837,0.04841964,-0.18844967,-0.32637298,0.08983799,-0.03031106,-0.029333185,0.35523787,0.24657607,0.31397012,-0.01006212,-0.16092212,0.03466355,-0.0035815677,-0.23936902,-0.12118397,0.05628704,0.030474707,0.17447905,0.08240524,-0.13126856,0.19014283,-0.043203183,-0.13112465,0.18711337,-0.17077452,-0.25817615,0.07949564,-0.18272242,-0.2639169,0.026424121,-0.087965935,-0.10952233,0.104469076,-0.0536615,-0.01988201,0.16059488,0.12567645,0.14445207,0.10597595,0.10981613,0.019524159,-0.19495367,-0.05570867,-0.03579179,-0.1619381,0.074664935,0.08307164,-0.13070557,0.24550925,0.22667935,0.039330095,0.025433922,-0.043429352,-0.22888242,-0.073242545,-0.07709783,-0.20556775,0.025322068,0.08286216,-0.03940542,-0.01823369,0.061245248,-0.01949306,0.18074977,0.112428755,0.04713172,-0.11912886,-0.17173104,-0.34485626,0.17074455,0.18781126,-0.043330282,-0.040901717,-0.06710013,-0.19173172,0.04402068,0.05190091,0.046079125,0.09090249,-0.030452153,-0.083764605,0.15381221,-0.06853903,-0.26560003,-0.099088386,-0.27218595,-0.3384963,0.0246196,-0.1568119,-0.18125129,0.01117668,-0.18008703,-0.090345405,-0.12664914,-0.25852883,-0.18637776,0.3475334,0.05570803,0.13725372,0.20828165,0.051498577,0.18618381,-0.081284784,-0.2755622,-0.122336894,-0.11738243,-0.19072127,0.12622926,-0.3251315,-0.4186018,-0.19567528,0.24895263,0.112665676,0.4277845,-0.01931052,-0.1171463,0.09705674,0.011078764,0.16167976,0.19514833,-0.13035999,-0.1326938,-0.03740968,-0.073457904,-0.19151334,-0.26139712,-0.024484316,-0.037286945,-0.100239314,0.057748996,0.16148072,0.1771194,0.046562605,0.11977824,0.079846926,-0.1469267,-0.08750528,-0.23430714,-0.0963905,0.115816414,0.06140238,0.117424384,0.19138055,0.1717453,-0.10318728,-0.027286502,0.034130123,-0.1860207,-0.08960588,-0.11076133,0.201434,0.18161075,0.03718727,0.11684425,0.07193076,0.018299058,-0.025524972,-0.009740329,-0.086158454,-0.14716332,-0.25050172,-0.22870311,0.15824422,0.09293681,-0.03513675,-0.044625696,-0.089404404,-0.10408991,0.092276216,-0.05166497,0.04820165,0.17046727,0.011933161,0.06589277,0.081999294,-0.07569438,-0.042229775,0.19279759,0.050349776,0.003389852,0.26301262,0.09896976,0.14738928,-0.02590266,-0.1076389,0.03446496,-0.029778225,-0.16463591,-0.051592067,-0.07920366,-0.15319876,-0.007399339,-0.12085147,-0.44241062,-0.23386338,0.087814346,-0.091756284,0.02483271,-0.19225112,-0.2615772,0.07033656,-0.103541516,-0.20672517,0.03282294,0.04394834,0.10885479,0.18138382,0.1375939,0.12674107,0.19675995,0.08511685,0.111779,0.11379727,0.039680656,0.11341951,0.07145154,0.22610092,0.19777413,0.00411837,-0.08603123,-0.005894441,-0.19648474,0.11080712,0.17737308,0.021015955,-0.30958557,-0.20212933,-0.13445108,0.094035685,0.14609303,0.120931275,0.019702516,0.10579735,0.0678798,0.04804351,0.04526137,-0.053703237,-0.0294171,0.014589156,-0.1809716,0.12113482,0.09536877,-0.031020675,0.08898968,0.061123766,0.1534645,0.10787192,0.03164245,0.03001847,-0.09880717,-0.25314695,-0.17009157,0.19302106,-0.023356518,0.028583638,0.21276464,0.08844687,0.27743962,0.33513802,0.17549734,0.27038372,0.022188276,-0.1152801,-0.028822841,0.35315296,0.23824991,0.35451493,0.3564227,0.21797645,0.3413019,-0.026177783,-0.20374265,-0.0013259589,0.094922446,-0.11833188,0.14487703,-0.07929675,-0.33567023,0.068899825,0.48097286,0.26753333,0.48337224,-0.1857231,-0.4168046,0.03775518,-0.3860454,-0.44453236,-0.106097996,-0.45383522,-0.3786464,-0.14357361,-0.27561954,-0.26280808,-0.11685909,0.04265473,-0.03597818,-0.05023168,0.2250146,0.12438815,0.10966154,0.041482694,0.015973397,-0.14908478,-0.116651736,-0.006508357,-0.07667457,-0.08093621,0.025397683,0.02444265,-0.45428222,-0.34564406,-0.29816532,-0.27509964,-0.14384957,-0.1614186,0.016930653,-0.01979902,-0.033998497,0.08566394,0.042318337,-0.02639992,-0.05571997,-0.028973332,-0.07882324,-0.08015054,-0.0874665,-0.15968022,0.2773928,0.25189415,0.3148313,0.12716231,0.05038955,0.10361997,0.11794859,0.11592776,0.13861105,-0.083824955,-0.2111548,-0.23077023,0.060026538,0.13906553,0.26836777,-0.27965346,-0.32276493,-0.19278345,-0.2820587,-0.33601668,-0.0969416,0.12856984,-0.0039379494,0.33691916,-0.22938386,-0.4085292,-0.12554362,-0.27626434,-0.34832388,0.16584578,0.32173643,0.2990432,0.66287136,0.19865604,0.047947373,0.35878202,0.23256691,0.09681059,0.38388592,0.23289362,-0.04023176,0.14609066,0.15217143,0.028710386,0.2902036,0.12752438,0.0713806,0.30504137,0.0045517473,0.116916046,0.31780607,-0.08390897,0.02302425,0.09712601,-0.008847146,-0.045145813,-0.11417469,0.19520283,0.19839782,0.08847185,0.035618827,0.21241261,0.082192004,-0.05943384,0.041247517,0.01604861,-0.005258372,0.13173619,0.17530891,-0.30056217,-0.12617807,-0.066979304,0.18166946,0.18857497,0.11735042,0.21001628,0.2994089,0.13812733,0.32019225,0.19285043,0.07822149,-0.025532398,-0.19322012,-0.12323381,-0.058925852,-0.09390647,0.0087464815,-0.14847067,-0.05346626,0.010025138,0.01572856,0.037806634,-0.007886243,0.12791319,0.14447619,0.19813174,0.3343076,0.24305956,0.26746234,0.3030722,0.14193158,0.23049478,-0.16959113,-0.2655295,0.028123274,-0.13363941,-0.061914362,0.30405438,-0.08937705,-0.1919681,0.07960139,-0.0030543825,-0.027542239,0.3513796,-0.22804606,-0.3034774,-0.015841916,0.09234111,-0.052445285,-0.06233679,0.15315853,0.008654716,0.059740342,0.13144998,-0.11156206,-0.044773147,0.20955738,-0.048539236,0.11375429,-0.030808829,0.072845235,0.33066317,0.06600182,0.0023639614,0.25019544,-0.12780531,-0.003016919,0.042593356,-0.42704606,-0.3736522,-0.29698595,-0.3058343,-0.27425537,-0.24289663,-0.104814954,-0.10210905,-0.25832132,0.04665407,0.10902374,0.11618751,-0.2286523,0.0024223377,0.06332241,-0.069802746,0.034605753,-0.02207137,-0.08473002,-0.09296865,-0.32929683,0.3155371,0.20118852,-0.010857092,0.10337128,-0.07664958,-0.13351056,-0.1442699,-0.18091303,-0.13229159,-0.17232902,-0.14060903,-0.0019218776,-0.24485083,-0.1597605,-0.102538384,-0.24075514,-0.23600693,-0.1652292,0.12664612,0.08171476,0.06847202,0.17594205,0.072541304,0.08745908,-0.2555124,-0.2839968,-0.114984125,-0.20990981,0.021168755,0.17753014,0.020235252,0.060028266,0.34706134,0.19222459,0.08545001,0.26350325,0.031931028,-0.11932757,0.18957296,-0.16835983,-0.19551273,0.082580395,0.008996354,0.022529386,0.057221446,0.11517149,-0.0053578303,-0.025912574,-0.18961218,-0.24589115,-0.08180738,0.34001818,0.2168464,0.2677848,0.23449847,0.2650454,0.38948172,0.044771448,0.017765198,0.013166283,-0.026687134,-0.08272194,-0.1506229,0.006380493,0.11051872,-0.06305331,0.2619535,0.21613969,0.18939993,0.022977514,-0.0046009067,-0.14442675,0.14181076,0.011473801,-0.081345186,-0.047914445,0.0027796638,-0.0038417354,0.06960876,0.03928864,0.005607252,-0.2129327,-0.16139473,-0.3496647,0.04236953,-0.20992698,-0.33192316,0.10075721,-0.07139746,-0.17373346,-0.05095794,0.10970898,0.29178348,-0.012585345,-0.0040192315,0.17867231,-0.026749577,-0.08246165,0.072351016,0.12273716,0.009658033,0.211428,0.17167361,0.019160133,0.05151311,-0.10791254,-0.26068857,-0.14325646,0.0061252564,-0.123671964,0.114841044,0.13412116,0.027288936,0.31405172,-0.30631176,-0.30501994,0.08245837,-0.15460129,-0.15120803,0.002671042,0.013284159,0.07342906,0.3515592,-0.07231709,0.090965785,0.32199666,0.007980867,0.02170013,0.2333111,0.15364413,0.052742306,0.047964793,0.30127022,0.12010306,0.12346513,0.029500326,-0.11664436,-0.10956405,-0.083488375,-0.24554569,-0.051083237,-0.04149053,-0.073076606,0.07320461,-0.28195527,-0.3313987,-0.40890616,-0.06611724,0.01189076,-0.049726162,0.059787925,0.090142794,0.060189307,0.15577051,0.2091863,0.101032875,0.08014422,0.16592643,0.07351038,-0.015409624,0.06488652,0.03356869,0.033551425,0.09137542,0.18940017,-0.28330845,-0.3797277,-0.6234767,0.14880413,0.10400251,-0.14959279,-0.12466998,-0.1689326,-0.20868768,-0.014552808,-0.11541521,0.0020610176,0.0066523715,-0.06515295,0.087074526,0.19452742,0.05352476,0.16635709,0.015828043,-0.081503935,-0.04788277,0.0327818,-0.23862773,-0.038719483,-0.0018798641,-0.28658178,-0.13942447,-0.034425057,-0.1664837,0.056173816,0.027168792,0.06427114,0.27499548,0.17916928,0.30230767,0.33255792,-0.20607789,-0.12052905,0.19068795,-0.15159622,-0.04381841,0.13696416,-0.3406973,-0.31956127,-0.20049362,0.29604065,0.16553715,0.20284897,-0.023274202,-0.044606343,0.058305867,-0.099651724,-0.084272414,-0.1241681,0.31983137,0.15892808,0.13269448,-0.13572167,-0.1380703,-0.07184171,-0.018464552,0.023882272,0.20022118,0.3670286,0.3501699,0.4150295,-0.017472496,-0.08881789,-0.07114493,-0.06702521,-0.059094194,0.08189767,-0.038661644,0.009076185,-0.08697053,-0.008572547,-0.036139525,-0.09250827,0.1962089,0.25897512,0.19811468,-0.06697313,-0.012129549,0.07961612,-0.23875326,-0.3315212,-0.42635688,0.35814556,0.26658165,0.19311638,0.066431284,0.06437712,0.012132418,-0.007554756,0.04512501,0.22712407,0.25428295,0.1722631,0.13556056,0.35298195,0.23032326,0.25472215,0.25313315,-0.044096936,-0.030755574,0.35951433,0.14381447,0.22539854,0.14725895,0.058881994,0.23624125,-0.23925737,-0.34430757,-0.14402257,-0.32849437,-0.2401928,-0.10916489,0.07235037,0.1383196,0.1881022,-0.32262683,-0.11301904,0.0046093287,-0.48109037,-0.12390194,0.20304453,-0.18575044,-0.006311651,-0.0025667965,0.33838418,0.36113065,0.30310568,0.107133724,0.10284157,0.16729811,0.2401905,0.32037425,0.3027397,0.35772777,0.23713365,0.31476784,0.0569229,0.021297786,-0.027701113,0.25140095,0.098871715,0.19335218,0.26071724,0.065158404,0.16057585,0.15817203,0.011363374,0.055893935,0.12707828,0.0068982975,0.007471869,-0.1103976,-0.16030444,-0.2646877,0.17404985,0.2716406,0.05206536,-0.30227268,-0.18154639,-0.20677169,0.008117068,0.035681233,-0.017299617,-0.0850606,-0.11224045,-0.28066638,-0.035654325,0.06936841,-0.041654043,-0.32139203,-0.37384078,-0.3278907,-0.059545442,0.0494355,0.17919753,-0.1839159,-0.075574145,0.16938668,0.21851934,0.18635501,0.34686854,0.09804414,-0.057039972,0.10517071,-0.1156612,-0.28323615,-0.11731399,-0.18022266,-0.039183367,0.036459416,0.15853976,0.24005426,0.31637317,-0.14688486,-0.064956024,-0.013544324,-0.117245376,0.036753293,0.041226644,-0.16303103,0.15715931,0.42075685,-0.015495817,0.18637207,0.34212497,0.22045575,0.14632843,0.22937189,-0.39661464,-0.33746666,-0.124110915,-0.08089355,-0.14941764,-0.16175531,-0.23101228,-0.30003458,-0.33064362,0.13204274,0.013769547,0.052964013,-0.010546604,-0.06260736,-0.19130169,0.20245418,0.14836417,0.15222901,-0.18227918,-0.29991594,-0.35100368,-0.043826457,0.04310821,-0.29307714,-0.51379,-0.3814736,-0.45811895,-0.02700231,0.14589697,-0.0056474707,-0.053066067,-0.00040385986,-0.25263637,-0.3277749,-0.27846795,-0.33572668,-0.121113874,0.016206874,-0.026577843,0.06780896,0.13232075,0.0032740834,0.19303606,0.062230032,0.02291015,-0.38416168,-0.33834738,-0.22013836,0.13778475,0.13727455,0.09403419,-0.1353442,-0.017781805,0.20022635,-0.046415832,-0.070152245,-0.0158528,-0.04861123,-0.0754628,-0.06639992,0.17502397,0.103188775,0.0023558547,0.018574312,0.0952493,-0.011359735,0.16394678,0.11844608,0.31022376,-0.033161953,0.0323323,0.12383827,-0.50763655,-0.1373355,-0.115322635,-0.35251066,-0.040909875,0.20864631,-0.14478193,0.17479125,0.20849878,0.044431355,0.331521,0.29635772,0.38175574,0.4121309,0.2979303,0.43814194,0.39423713,0.28014612,0.087088116,0.03309075,-0.2361756,-0.121835984,-0.023942726,-0.07480156,0.1858244,0.18685181,-0.20048185,0.13631526,0.19594029,0.011418159,-0.14329222,-0.014805178,-0.13536786,0.026741229,0.08405992,0.035051666,0.3360869,0.5119715,0.47510567,0.031059138,0.058191948,-0.17587754,0.43296367,0.36226982,0.11835398,0.21600287,0.20188957,0.21519096,-0.08165554,0.03267109,-0.1357535,-0.15816851,-0.07372328,-0.03411598,-0.022039745,-0.067959316,-0.038973805,-0.19515239,-0.12039589,0.00087737344,0.0040522115,0.014962913,0.116104394,-0.19521122,-0.10601885,0.14304326,-0.04862253,0.044551324,0.23716855,0.2527512,0.21715376,0.19232471,0.32550323,0.23984043,0.101926096,0.0943149,0.19186777,0.15819111,-0.0069772187,0.11602425,0.24233025,-0.04045662,0.22726054,0.33202708,-0.05762634,-0.11174713,-0.0046076304,-0.23434055,-0.119585216,-0.0572138,-0.2897855,-0.10928164,-0.3722235,-0.008786298,0.13337484,0.05850243,-0.15820022,-0.11402544,-0.32528168,-0.19322647,-0.07886324,-0.25603536,0.021485928,0.0900292,-0.1253438,-0.33164096,-0.21241042,-0.29731637,-0.0060690315,0.011367893,-0.0446207,0.2601676,0.20730317,-0.029395912,0.11154231,0.21422346,-0.09392836,-0.19035262,-0.049852964,-0.30974472,-0.14106813,0.1453851,0.020922357,-0.21100083,0.046615064,-0.18274458,0.01699581,-0.011110225,-0.1463729,0.54481,0.5170784,0.38589662,-0.40801543,-0.28334716,-0.43382517,0.034168113,0.019131806,0.123257205,0.045085344,0.1254659,0.0614361,-0.23718032,-0.28853807,-0.013062767,-0.22761308,-0.24625678,-0.009068244,0.026329674,-0.033822656,0.16826078,0.08031599,0.16406469,0.16770025,-0.03213581,-0.19203214,-0.105079085,0.106377974,-0.01589858,-0.06019408,0.037207875,0.070173234,0.0065119173,-0.14839375,-0.05868809,0.16522993,-0.19410846,-0.0398211,-0.07406475,-0.10681894,-0.01042931,-0.03257743,-0.18775798,-0.022808418,0.0435892,0.017635183,0.21365474,0.28168282,-0.019515315,0.20984077,0.12538797,-0.16259457,-0.007884714,-0.12486986,0.05622602,0.23526786,0.055481464,0.11930664,0.21699382,0.23579851,-0.000980408,0.05583169,-0.046597317,0.03244281,0.029202268,0.002016199,0.06619124,-0.046295937,-0.007669565,0.05849031,0.26869676,0.010252118,0.12229955,0.39127836,0.10093176,-0.04985337,0.26382965,0.19390535,-0.23523676,0.0044238465,-0.061595414,-0.59562033,-0.29674917,-0.40868145,0.029730387,0.105522275,-0.0045537073,0.13187113,0.18322892,0.21136582,0.1874334,0.1495488,0.121449284,0.021391675,0.12493261,0.07717938,0.100545265,0.08000945,0.08127398,-0.09738893,-0.088615045,-0.02544338,0.17310804,0.38197428,0.4457379,0.0049080704,-0.026617019,0.20625547,0.06100001,-0.12667055,0.004659757,0.35677317,0.25239134,0.40027228,-0.11121823,-0.07717987,-0.028149277,0.12562823,0.29019797,0.3733115,-0.2203932,-0.00912334,0.023642503,-0.31352273,-0.0074535515,-0.068078965,-0.10705142,0.17635109,-0.05475648,-0.37349632,-0.13440032,-0.1990797,-0.30003834,-0.26092798,-0.23735316,-0.19615577,-0.25462908,-0.41421932,0.13726309,0.27599317,-0.10277964,-0.10298226,0.04983883,-0.06894231,-0.102974415,0.166785,-0.059588812,0.056196347,0.2433553,-0.02446525,-0.0982164,0.09808285,0.13670285,0.07665179,0.49116486,0.35598743,-0.33562782,-0.065431125,-0.16680326,-0.19164161,0.15034321,0.10372213,0.14116083,0.35442364,0.20324309,-0.09919254,0.026600659,-0.104108855,-0.08983282,-0.111204304,-0.1278006,-0.08748146,-0.14515287,-0.19150724,-0.25792038,-0.27329853,-0.3502291,-0.07938716,-0.07534999,-0.09937365,-0.1461243,-0.21234556,-0.33240768,-0.218927,-0.18791266,-0.16481385,-0.22010012,-0.015599474,0.08099828,-0.22814974,-0.19445741,0.042813543,0.0086558405,0.13997239,-0.016227117,0.030567536,0.076195285,0.14238997,-0.025308155,0.081312545,0.2752764,-0.050903447,0.24287131,0.31052697,-0.052526522,0.11565585,0.15175,-0.18482687,-0.019451903,0.053493656,0.034718547,0.19318773,0.08975444,-0.41917634,-0.17662385,-0.023573697,-0.15285297,-0.06260474,0.042740982,0.19178705,0.11036649,0.18312094,-0.006913146,0.13093898,0.14444922,-0.021984056,0.25632766,0.28629744,-0.122073025,0.13445514,0.11338266,-0.44193602,-0.14697897,-0.101403005,-0.25169602,0.0699267,0.32577705,-0.5735938,-0.15205464,0.16800672,-0.23141418,0.03474695,-0.13171585,-0.40145072,-0.11197194,-0.06327313,-0.16349392,0.10831076,0.16821267,0.049685292,0.25082764,0.034551643,0.16344742,0.13602263,0.06866005,0.1520694,0.099011436,0.009193482,0.12822442,-0.07304622,-0.16537695,0.12880307,0.006981463,-0.0014141459,0.16428643,0.24634965,0.28493726,-0.16136844,-0.11326251,0.03285452,-0.19413768,-0.2746234,-0.004123865,0.17794377,0.29226962,0.34969613,0.14240229,0.1506351,0.056711167,-0.1410492,-0.040955614,-0.00843703,-0.10433762,0.08518364,0.1749128,-0.5824353,-0.25816557,-0.21363604,-0.40298247,-0.031285252,-0.17546824,-0.18208465,0.12085923,0.013591734,-0.2549385,0.026697347,0.09073809,-0.19822149,0.097570814,-0.047635987,0.20067847,0.43108284,0.36429116,-0.22723795,-0.04483909,0.03981114,-0.2119358,0.08621952,0.0015960081,-0.25890946,0.12189794,0.035026636,0.13717093,0.4156094,0.31098711,-0.055259366,0.23015113,0.109908424,0.052849073,0.3855925,0.38756734,-0.10516049,0.08062676,0.19412896,-0.15657766,0.13620356,0.0728377,-0.23072992,-0.113432735,-0.15306005,-0.23844957,-0.07171453,-0.20198168,-0.013529172,0.011732757,-0.126813,-0.049235955,-0.087287895,-0.22055194,0.13520534,0.012863156,0.016909434,0.39263403,0.3834474,0.36268163,-0.22197986,-0.19115122,-0.18348742,0.052819,0.123927526,0.2107008,0.32761315,0.3382498,0.4578065,0.02034826,0.0279692,0.17725077,0.0963815,0.23933502,0.2926544,-0.008974679,0.036244377,-0.22476771,0.13987276,0.22610936,0.11876606,0.09933942,0.28035673,0.2049253,-0.21007563,-0.06867616,-0.044400916,-0.21583177,0.1019133,0.11612121,-0.11730313,0.21523422,0.31570932,-0.1252776,-0.05156911,-0.05067954,-0.034399804,0.055258017,-0.088171236,-0.4309383,-0.3130823,-0.45993692,-0.1738178,-0.0561902,-0.122250006,-0.17497651,-0.039991908,-0.3617971,-0.07557523,0.20748493,0.28572217,0.31272754,0.55044156,0.51181084,-0.19691668,0.13177826,0.1023862,-0.21088462,-0.006712999,0.12203393,-0.07061688,0.17429611,0.39347184,-0.071560174,0.11147018,0.13804291,-0.17419964,-0.064115174,-0.011014825,0.33790937,0.35714805,0.31443277,0.10027676,0.089161985,-0.13200471,-0.051610257,0.03338563,-0.06125585,-0.10501001,-0.12844734,-0.28064042,0.035509754,0.09679464,0.018109258,-0.13062935,-0.20316039,-0.015584013,-0.49674937,-0.39323267,-0.2599612,-0.2144818,-0.15780674,0.0426788,-0.11012172,0.02044758,0.26447833,-0.1628252,-0.100515604,-0.18533579,-0.3045239,-0.20168018,-0.37977928,-0.07864564,0.08823442,0.036362335,-0.43726173,-0.122580856,-0.039581012,-0.1782738,0.16250883,0.22889657,0.088539414,0.5813881,0.54053617,-0.26725966,0.04697155,0.18913086,-0.06602574,0.14537556,0.06434286,0.34974557,0.3496777,0.1785031,-0.032842122,0.10071837,-0.12516473,0.013450178,-0.0026905932,-0.25343713,-0.021027735,0.09494141,-0.22285664,-0.0535119,0.048531618,-0.10500255,0.081904754,0.04333013,-0.087672345,0.33462882,0.30168676,0.026576156,-0.18360277,-0.16495855,-0.28644896,0.10722554,0.23336792,0.32024455,-0.05819752,0.09909172,0.10118251,-0.16924062,-0.20298561,-0.18264258,0.16108595,0.20730469,0.017609417,0.07317487,0.040666103,-0.18034407,0.04976864,-0.011634946,-0.16951998,0.20338283,0.1484148,-0.033068497,0.22162381,0.27298114,0.3051019,0.13531941,0.041662373,0.0028025038,0.21958038,0.13089517,0.13026994,-0.14644533,-0.010933194,0.14773439,-0.16850187,-0.067205854,0.11847813,-0.46989667,-0.33295602,-0.27005783,0.30218565,0.32065922,0.047485147,-0.0134045305,0.06486956,0.077948056,0.3725284,0.56310976,0.40504444,-0.16331342,0.20581973,0.09091842,-0.33101708,0.14962937,0.087631226,-0.4511212,-0.19043961,-0.18014514,-0.20688704,-0.14436123,-0.21408606,0.34333724,0.31666774,0.213749,0.09411336,0.21546224,0.037241343,-0.10794913,-0.06785997,-0.20047832,0.17418252,0.30134812,0.038526386,-0.2695777,-0.10287243,-0.13827282,-0.08701433,-0.15297325,-0.19993205,0.0474815,0.062463786,-0.07342439,0.020398991,0.0004341741,-0.052567963,-0.026376223,0.046805006,0.07260932,-0.35294837,-0.08061918,-0.093948476,0.023791978,-0.055112544,-0.10949482,0.13446997,-0.008205876,-0.05636999,-0.111273795,-0.19979903,-0.36559916,-0.08850837,-0.115927935,-0.18073675,0.03471296,-0.07936445,-0.2019284,0.16590588,-0.04509192,-0.21724229,0.10518303,0.06796667,-0.19499306,0.10454213,-0.049149442,-0.24238192,0.18794118,0.16538404,0.16928244,-0.06849307,0.010738341,0.073560424,-0.085667536,-0.1827129,-0.23831399,-0.18631849,-0.20748031,-0.3727217,-0.17645034,-0.1354043,-0.12754612,0.05540275,0.2717892,0.24840236,-0.5148056,-0.27422044,-0.27532488,-0.40981853,-0.07264781,0.03594767,-0.20505032,0.0551734,0.07629648,0.18930343,0.20346828,-0.0028166766,-0.44432017,-0.3638016,-0.5747023,0.08952482,0.16709863,-0.091870844,0.2773714,0.3100492,0.1562907,0.21265125,0.2235411,-0.02065525,0.10226217,0.09890261,-0.0634942,0.1385383,0.104804575,-0.14671136,-0.27179193,-0.23519199,-0.20425475,-0.057615638,-0.047868133,-0.07300658,0.05460632,0.045423463,0.08032219,0.14565058,0.16897444,0.22752964,0.06828933,-0.054333482,-0.19068009,0.53408194,0.3105671,0.34305832,-0.05479023,-0.08626202,-0.11044829,-0.0814196,-0.19850782,-0.325304,0.5060712,0.18654403,-0.0042464696,0.19361971,0.044582196,0.003167767,0.10355298,0.0088014165,-0.12401752,0.17553458,0.07800417,-0.018790135,0.460223,0.42585516,0.42908263,0.08630179,-0.0014805659,0.13192515,-0.04284114,0.008497749,-0.032394808,0.17481424,0.15926264,0.015835106,0.11692422,0.1823149,0.03690846,-0.05725487,0.10191984,0.121891364,-0.51441944,-0.12859458,-0.027061477,-0.43486804,-0.17860933,-0.2846686,-0.18904993,0.01517808,0.03492091,0.3412667,0.3781062,0.29473567,0.10821954,0.2160077,0.015421474,-0.25369674,-0.107648395,-0.48004222,-0.00021590697,0.1142306,-0.115987234,-0.0020064735,0.0484556,-0.23704198,0.029090255,0.060915753,-0.12096518,-0.12309047,0.07073871,-0.1172298,0.24634701,0.43734333,0.41782412,-0.08843704,-0.15728426,0.04834164,0.25039828,0.2198289,0.26359242,0.0728785,-0.077443846,-0.028207682,0.2460061,0.07720858,0.021006547,0.17786063,0.064034596,-0.08729628,-0.20420401,-0.1657851,-0.22562227,0.008654762,-0.17382215,-0.24506296,0.4062316,0.2420836,0.10208109,-0.0625218,-0.10430249,-0.28810826,-0.06159198,-0.122564755,-0.2883332,0.13511087,-0.042850856,-0.062295016,0.14089842,0.14301465,0.17977871,0.3279533,0.13825966,0.18563285,0.050712544,-0.0037167028,0.05732962,0.15766114,0.1627681,-0.037953466,-0.04204636,0.07075,-0.11655546,0.08825306,0.03063567,-0.13481681,-0.07445487,0.14543872,0.08702547,-0.23537767,0.04046587,-0.0103988005,0.09560697,0.22856317,0.13594839,0.03810367,0.026139308,0.19013815,0.0003820531,0.18781868,0.23923877,-0.344156,-0.25008258,-0.25766385,-0.073744744,-0.019561011,-0.08391411,-0.050579064,-0.0494314,-0.32522067,0.025865857,-0.089352876,-0.30835667,-0.21489884,-0.1790168,-0.12589106,-0.11404108,-0.13852236,-0.029890466,-0.28186736,-0.2988744,0.0034873409,-0.018586885,-0.1164268,-0.0803283,-0.010536628,-0.04555901,-0.10385362,-0.024200808,-0.044718783,-0.14303571,0.29292047,0.10914554,0.030772405,0.24059045,0.10110726,-0.050061103,0.1737839,-0.048026606,-0.1881641,0.07145223,-0.13165824,-0.23083687,-0.15999508,-0.23011337,-0.22114697,-0.0836018,-0.09086653,-0.1955878,0.08264725,0.07871648,0.07775192,-0.10864396,-0.048539877,0.15550634,0.351906,0.4042269,0.501535,-0.036352217,-0.07957876,-0.012523279,-0.04907848,-0.05266584,-0.22059527,0.11662765,0.17010026,-0.0373355,0.060257386,-0.09131898,-0.263089,0.1345325,0.26019317,0.09066891,0.14641324,0.3663257,0.3394805,0.08551892,0.14323379,0.18113117,-0.20628737,-0.15660785,-0.05901531,0.0650941,0.09500064,-0.021787297,0.049592983,0.08932099,0.060698632,0.16092342,-0.021619134,-0.18561229,0.016282696,0.00056605187,-0.21359284,-0.0776238,-0.031041836,-0.13470395,0.23521362,0.0498239,-0.13495804,0.3840607,0.2376019,0.26065817,0.00032679562,-0.17381254,-0.12852487,-0.034436364,-0.11252737,-0.26529354,-0.14315493,-0.28495044,-0.3089839,-0.077413835,-0.090918876,-0.28782904,0.30652753,0.23823121,0.09359456,0.27849898,0.08133155,0.07679212,0.21128376,-0.044120494,-0.17956638,0.096015915,-0.07196597,-0.033177186,-0.1826412,-0.2607822,-0.19249171,-0.04323074,-0.14562903,-0.012025527,-0.085641526,-0.1313054,0.0170283,-0.04485494,0.054301623,0.2978962,0.046955492,0.036404546,0.38539568,-0.049720716,-0.04943817,0.0054969555,0.15109938,0.013319416,-0.056286268,-0.32621154,-0.25284287,-0.25297374,-0.17749915,-0.12197492,-0.1698715,-0.28545862,-0.25675654,-0.23503873,0.25036243,0.3187172,0.42411828,-0.046677273,0.058955118,-0.04013164,0.20988,0.071848154,0.14529485,0.12327462,-0.07736932,-0.19567704,0.067226395,0.026624383,-0.12897919,0.33289304,0.123856924,0.018510181,0.14413281,0.06587703,0.10528953,-0.22042648,-0.1258193,-0.11108474,0.13294677,0.047716487,0.24649523,-0.56253177,-0.38724604,-0.101151474,-0.21753466,-0.17619559,-0.30837062,0.25668958,0.29113826,0.16803457,0.10270971,0.17689061,0.040979587,0.23812126,0.18221088,0.055784784,0.3080515,0.30335087,0.25678527,0.27734405,0.035963047,0.008315291,0.090127796,-0.042011376,-0.054520506,0.26571393,0.053907357,-0.023776688,0.1336752,-0.18632767,-0.18584089,0.1734261,-0.0932152,-0.3186795,-0.19517827,-0.34949198,-0.1850594,-0.033529993,-0.034271125,0.31944373,0.103312746,0.099151835,0.37943625,0.13501011,-0.068178006,0.050132785,-0.028000895,-0.17789626,-0.1821414,0.11178873,-0.030667271,0.029819772,-0.072379194,-0.014066996,1.1809703e-05,-0.042416647,-0.18739319,-0.11441028,0.14553405,0.20795907,0.23993221,0.21060602,0.10371959,0.20781086,0.15504558,0.13305297,0.29115295,-0.26077923,-0.4023544,-0.2414051,0.10252343,0.14363365,0.17765824,0.06868359,-0.021489471,-0.052729566,0.0821116,0.024273446,-0.040081296,0.5411599,0.38042703,0.4552178,0.33152592,0.22828013,0.21121044,-0.03252043,-0.16334565,-0.25015903,-0.07432655,-0.16090253,-0.2306141,-0.15740888,-0.18488172,-0.26626644,-0.06609783,-0.18655844,-0.17745513,0.38558745,0.22982383,0.19301614,0.25690097,0.19318345,0.22626957,-0.02944554,-0.0692598,-0.1366784,0.10318106,0.0068656337,-0.016468408,0.11143542,-0.07712634,0.05764005,-0.025628889,-0.2399902,-0.17622833,-0.15718246,-0.31677288,-0.43182147,0.09377218,-0.11263421,-0.070679896,0.07734525,0.09909055,0.3211863,0.14534941,0.06909084,0.20019194,0.12476589,-0.111701116,0.042595625,0.34643027,0.22234672,0.09878662,0.2748565,0.26272863,0.13741182,-0.2373451,-0.23792724,-0.22079957,0.0009637199,-0.03154357,0.058933396,0.24469645,0.1715604,0.21256891,0.24427564,0.08573753,-0.045809492,-0.1162658,-0.16814564,-0.20084006,-0.045330446,-0.13421088,0.06282164,-0.021851832,-0.040655047,0.11944877,0.24871373,0.13818258,0.07312576,0.11201554,-0.0063799666,-0.12177741,0.23287298,-0.079001434,-0.03692154,0.23138364,0.08632752,0.21631038,-0.030224511,-0.23224801,-0.15723565,0.07558278,-0.106088296,-0.010874186,0.022748819,-0.067676485,0.104184195,-0.23835552,-0.20795912,-0.053573262,-0.007108519,-0.13105392,-0.14902222,0.012941787,-0.13185312,-0.20965669,0.03336873,-0.25390092,-0.40238732,0.27163061,0.031146225,0.16906255,0.20180185,0.00067664136,-0.0143141085,0.09650679,-0.09948282,-0.104621194,0.2783624,0.075327955,0.12562516,0.1698993,-0.050294455,0.104237355,0.12281027,-0.070481345,-0.011964981,0.13874765,-0.00882915,-0.045527093,0.101501666,-0.057231594,-0.15693761,0.18275999,0.038518365,-0.14762492,0.26606438,0.18303713,0.035739534,-0.079599135,-0.22407825,-0.382274,0.19437756,-0.054874975,-0.0645261,0.103310354,-0.03748353,-0.15824093,0.28875872,0.0901286,-0.24888578,-0.039910372,-0.24292979,-0.30493587,0.17445037,-0.017661942,-0.06893766,0.23252055,-0.048639562,-0.20600595,0.27059653,0.10563723,0.077680215,0.33308282,0.086601384,0.010095731,-0.015780304,-0.20872772,-0.08891798,0.19996244,-0.11978113,-0.06277992,0.4124308,0.09860665,0.10802277,0.05691755,-0.26260749,-0.15439405,0.19667247,0.040906407,0.1685089,0.16572149,0.10833203,0.22057277,0.34239495,0.05074166,-0.09041086,0.06711107,-0.113496065,-0.33842966,0.17363985,-0.077552676,-0.25162014,-0.08399426,-0.12204607,-0.2035311,-0.13035049,-0.35946414,-0.45517078, /* bias */ 1.8244712};

#pragma GCC diagnostic ignored "-Wgnu-folding-constant"

#define uint unsigned int
#define SCAN_AREA 28

// #define SCAN_VARIANCE 3
// #define SCAN_DELAY 60000
// #define ACTIVATION_SENITIVITY 0.75
// #define REPEAT_ACTIVATION 1
// #define FIRE_RATE_LIMIT_MS 800

#define SCAN_VARIANCE 3
#define SCAN_DELAY 30000
#define ACTIVATION_SENITIVITY 0.65
#define REPEAT_ACTIVATION 2
#define FIRE_RATE_LIMIT_MS 800

const uint r0 = SCAN_AREA;  // dimensions of sample image square
const uint r2 = r0*r0;      // total pixels in square
const uint r2i = r2*3;      // total inputs to neural net pixels*channels
const uint rd2 = r0/2;      // total pixels divided by two
uint x=0, y=0;

float input[r2i] = {0};
    double r[r2] = {0};
    double g[r2] = {0};
    double b[r2] = {0};

Display *d;
int si;
Window twin;
GC gc = 0;
int tc = 0;

/***************************************************
   ~~ Neural Network Forward-Pass
*/
static inline float sigmoid(const float x)
{
    return 1 / (1 + exp(-x));
}

float ModelProcess(const float* input)
{
    float o1 = 0;
    for(int i = 0; i < 2353; i++)
    {
        if(i == 2352)
        {
            o1 += aim_kernel[i]; // bias
            o1 = tanh(o1);
        }
        else
        {
            o1 += input[i] * aim_kernel[i]; // weight
        }
    }

    return sigmoid( (o1 * -4.2397494) + -0.22913371 );
}


/***************************************************
   ~~ Utils
*/
uint qRand(const uint min, const uint max)
{
    return ( ( (((float)rand())+1e-7) / (float)RAND_MAX ) * ((max+1)-min) ) + min;
}

//https://www.cl.cam.ac.uk/~mgk25/ucs/keysymdef.h
int key_is_pressed(KeySym ks)
{
    Display *dpy = XOpenDisplay(":0");
    char keys_return[32];
    XQueryKeymap(dpy, keys_return);
    KeyCode kc2 = XKeysymToKeycode(dpy, ks);
    int isPressed = !!(keys_return[kc2 >> 3] & (1 << (kc2 & 7)));
    XCloseDisplay(dpy);
    return isPressed;
}

void speakS(const char* text)
{
    char s[256];
    sprintf(s, "/usr/bin/espeak \"%s\"", text);
    if(system(s) <= 0)
        sleep(1);
}

void speakI(const int i)
{
    char s[256];
    sprintf(s, "/usr/bin/espeak %i", i);
    if(system(s) <= 0)
        sleep(1);
}

void speakF(const double f)
{
    char s[256];
    sprintf(s, "/usr/bin/espeak %.1f", f);
    if(system(s) <= 0)
        sleep(1);
}

Window getWindow() // gets child window mouse is over
{
    Display *d = XOpenDisplay((char *) NULL);
    if(d == NULL)
        return 0;
    int si = XDefaultScreen(d);
    XEvent event;
    memset(&event, 0x00, sizeof(event));
    XQueryPointer(d, RootWindow(d, si), &event.xbutton.root, &event.xbutton.window, &event.xbutton.x_root, &event.xbutton.y_root, &event.xbutton.x, &event.xbutton.y, &event.xbutton.state);
    event.xbutton.subwindow = event.xbutton.window;
    while(event.xbutton.subwindow)
    {
        event.xbutton.window = event.xbutton.subwindow;
        XQueryPointer(d, event.xbutton.window, &event.xbutton.root, &event.xbutton.subwindow, &event.xbutton.x_root, &event.xbutton.y_root, &event.xbutton.x, &event.xbutton.y, &event.xbutton.state);
    }
    const Window ret = event.xbutton.window;
    XCloseDisplay(d);
    return ret;
}

void processScanArea(Window w)
{
    // get image block
    XImage *img = XGetImage(d, w, (x+qRand(-SCAN_VARIANCE, SCAN_VARIANCE))-rd2, (y+qRand(-SCAN_VARIANCE, SCAN_VARIANCE))-rd2, r0, r0, AllPlanes, XYPixmap);
    if(img == NULL)
        return;

    // colour map
    const Colormap map = XDefaultColormap(d, si);

    // extract colour information
    double rh = 0, rl = 99999999999999, rm = 0;
    double gh = 0, gl = 99999999999999, gm = 0;
    double bh = 0, bl = 99999999999999, bm = 0;
    int i = 0;
    for(int y = 0; y < r0; y++)
    {
        for(int x = 0; x < r0; x++)
        {
            XColor c;
            c.pixel = XGetPixel(img, x, y);
            XQueryColor(d, map, &c);

            r[i] = (double)c.red;
            g[i] = (double)c.green;
            b[i] = (double)c.blue;

            if(r[i] > rh){rh = r[i];}
            if(r[i] < rl){rl = r[i];}
            rm += r[i];

            if(g[i] > gh){gh = g[i];}
            if(g[i] < gl){gl = g[i];}
            gm += g[i];

            if(b[i] > bh){bh = b[i];}
            if(b[i] < bl){bl = b[i];}
            bm += b[i];

            i++;
        }
    }

    // free image block
    XFree(img);

    /////////////////
    // mean normalised

    rm /= r2;
    gm /= r2;
    bm /= r2;

    const double rmd = rh-rl;
    const double gmd = gh-gl;
    const double bmd = bh-bl;

    for(uint i = 0, i2 = 0; i < r2i; i += 3, i2++)
    {
        input[i]   = ((r[i2]-rm)+1e-7) / (rmd+1e-7);
        input[i+1] = ((g[i2]-gm)+1e-7) / (gmd+1e-7);
        input[i+2] = ((b[i2]-bm)+1e-7) / (bmd+1e-7);
    }
}

/***************************************************
   ~~ Program Entry Point
*/
int main(int argc, char *argv[])
{
    printf("James William Fletcher (james@voxdsp.com)\n\n");
    printf("Hotkeys:\n");
    printf("L-CTRL + L-ALT = Toggle BOT ON/OFF\n");
    printf("R-CTRL + R-ALT = Toggle HOTKEYS ON/OFF\n");
    printf("\nL-SHIFT / V = Autoshoot while pressed.\n\n");
    printf("P = Toggle crosshair.\n");
    printf("C = Output input array from reticule area.\n");
    printf("G = Get activation for reticule area.\n");
    printf("\n\n");

    //
    
    XEvent event;
    memset(&event, 0x00, sizeof(event));
    
    uint enable = 0;
    uint autofire = 0;
    uint crosshair = 0;
    uint hotkeys = 1;

    //
    
    while(1)
    {
        // loop every SCAN_DELAY ms (1,000 microsecond = 1 millisecond)
        usleep(SCAN_DELAY);

        // bot toggle
        if(key_is_pressed(XK_Control_L) && key_is_pressed(XK_Alt_L))
        {
            if(enable == 0)
            {
                // open display 0
                d = XOpenDisplay((char *) NULL);
                if(d == NULL)
                    continue;

                // get default screen
                si = XDefaultScreen(d);

                // get graphics context
                gc = DefaultGC(d, si);

                // get window
                twin = getWindow();

                // get center window point (x & y)
                XWindowAttributes attr;
                XGetWindowAttributes(d, twin, &attr);
                x = attr.width/2;
                y = attr.height/2;

                // set mouse event
                memset(&event, 0x00, sizeof(event));
                event.type = ButtonPress;
                event.xbutton.button = Button1;
                event.xbutton.same_screen = True;
                event.xbutton.subwindow = twin;
                event.xbutton.window = twin;

                enable = 1;
                usleep(300000);
                printf("BOT: ON [%ix%i]\n", x, y);
                speakS("on");
            }
            else
            {
                enable = 0;
                usleep(300000);
                XCloseDisplay(d);
                printf("BOT: OFF\n");
                speakS("off");
            }
        }
        
        // toggle bot on/off
        if(enable == 1 && getWindow() == twin)
        {
            // input toggle
            if(key_is_pressed(XK_Control_R) && key_is_pressed(XK_Alt_R))
            {
                if(hotkeys == 0)
                {
                    hotkeys = 1;
                    usleep(300000);
                    printf("HOTKEYS: ON [%ix%i]\n", x, y);
                    speakS("hk on");
                }
                else
                {
                    hotkeys = 0;
                    usleep(300000);
                    printf("HOTKEYS: OFF\n");
                    speakS("hk off");
                }
            }

            if(hotkeys == 1)
            {
                // detect when pressed
                if(key_is_pressed(XK_Shift_L))
                    autofire = 1;
                else
                    if(key_is_pressed(XK_V))
                        autofire = 1;
                    else
                        autofire = 0;
                
                // crosshair toggle
                if(key_is_pressed(XK_P))
                {
                    if(crosshair == 0)
                    {
                        crosshair = 1;
                        usleep(300000);
                        printf("CROSSHAIR: ON\n");
                        speakS("cx on");
                    }
                    else
                    {
                        crosshair = 0;
                        usleep(300000);
                        printf("CROSSHAIR: OFF\n");
                        speakS("cx off");
                    }
                }

                // print input data
                if(key_is_pressed(XK_C))
                {
                    processScanArea(twin);

                    // per channel
                    printf("R: ");
                    for(uint i = 0; i < r2; i++)
                        printf("%.2f ", r[i]);
                    printf("\n\n");

                    printf("G: ");
                    for(uint i = 0; i < r2; i++)
                        printf("%.2f ", g[i]);
                    printf("\n\n");

                    printf("B: ");
                    for(uint i = 0; i < r2; i++)
                        printf("%.2f ", b[i]);
                    printf("\n\n");
                }

            }
            
            if(autofire == 1) // left mouse trigger on activation
            {
                processScanArea(twin);
                int TRIGGER = 1; // low detections get one shot
                const float activation = ModelProcess(&input[0]);
                if(activation > 0.8){TRIGGER = 3;} // mid range gets 3 shots
                if(activation > 0.9){TRIGGER = 6;} // high range gets 6 shots

                // passed minimum activation?
                if(activation > ACTIVATION_SENITIVITY)
                {
                    tc++;

                    // did we activate enough times in a row to be sure this is a target?
                    if(tc > REPEAT_ACTIVATION)
                    {
                        // fire off as many shots as we need to
                        for(int i = 0; i < TRIGGER; i++)
                        {
                            // fire mouse down
                            event.type = ButtonPress;
                            event.xbutton.state = 0;
                            XSendEvent(d, PointerWindow, True, 0xfff, &event);
                            XFlush(d);
                            
                            // wait 100ms (or ban for suspected cheating)
                            usleep(100000);
                            
                            // release mouse down
                            event.type = ButtonRelease;
                            event.xbutton.state = 0x100;
                            XSendEvent(d, PointerWindow, True, 0xfff, &event);
                            XFlush(d);

                            // fire limit
                            usleep(FIRE_RATE_LIMIT_MS * 100);
                        }

                        // fire limit
                        usleep(FIRE_RATE_LIMIT_MS * 1000);
                    }
                }
                else
                {
                    tc = 0;
                }
            }
            else if(hotkeys == 1 && key_is_pressed(XK_G)) // print activation when pressed
            {
                processScanArea(twin);
                const float ret = ModelProcess(&input[0]);
                printf("A: %f\n", ret);
                if(ret > ACTIVATION_SENITIVITY)
                {
                    XSetForeground(d, gc, 65280);
                    XDrawRectangle(d, event.xbutton.window, gc, x-rd2-1, y-rd2-1, r0+2, r0+2);
                    XSetForeground(d, gc, 0);
                    XDrawRectangle(d, event.xbutton.window, gc, x-rd2-2, y-rd2-2, r0+4, r0+4);
                    XFlush(d);
                }
                else
                {
                    XSetForeground(d, gc, 16711680);
                    XDrawRectangle(d, event.xbutton.window, gc, x-rd2-1, y-rd2-1, r0+2, r0+2);
                    XSetForeground(d, gc, 0);
                    XDrawRectangle(d, event.xbutton.window, gc, x-rd2-2, y-rd2-2, r0+4, r0+4);
                    XFlush(d);
                }                
            }

            if(crosshair == 1)
            {
                XSetForeground(d, gc, 0);
                XDrawPoint(d, event.xbutton.window, gc, x, y);
                XSetForeground(d, gc, 65280);
                XDrawRectangle(d, event.xbutton.window, gc, x-1, y-1, 2, 2);
                XSetForeground(d, gc, 0);
                XDrawRectangle(d, event.xbutton.window, gc, x-2, y-2, 4, 4);
                XFlush(d);
            }

        ///
        }
    }

    // done, never gets here in regular execution flow
    return 0;
}
